{"learner":{"attributes":{"scikit_learn":"{\"_estimator_type\": \"classifier\"}"},"feature_names":["x0","y0","x1","y1","x2","y2","x3","y3","x4","y4","x5","y5","x6","y6","x7","y7","x8","y8","x9","y9","x10","y10","x11","y11","x12","y12","x13","y13","x14","y14","x15","y15","x16","y16"],"feature_types":["float","float","float","float","float","float","float","float","float","float","float","float","float","float","float","float","float","float","float","float","float","float","float","float","float","float","float","float","float","float","float","float","float","float"],"gradient_booster":{"model":{"gbtree_model_param":{"num_parallel_tree":"1","num_trees":"50"},"iteration_indptr":[0,1,2,3,4,5,6,7,8,9,10,11,12,13,14,15,16,17,18,19,20,21,22,23,24,25,26,27,28,29,30,31,32,33,34,35,36,37,38,39,40,41,42,43,44,45,46,47,48,49,50],"tree_info":[0,0,0,0,0,0,0,0,0,0,0,0,0,0,0,0,0,0,0,0,0,0,0,0,0,0,0,0,0,0,0,0,0,0,0,0,0,0,0,0,0,0,0,0,0,0,0,0,0,0],"trees":[{"base_weights":[1.4686019E-7,-4.5053253E0,6.88788E-1,-8.091402E0,9.212327E-2,9.452851E-1,-5.645065E-1,-9.092321E-1,-8.473153E-2,1.862957E-2,1.01925366E-1,-4.7481942E-1,2.3966117E-2],"categories":[],"categories_nodes":[],"categories_segments":[],"categories_sizes":[],"default_left":[0,0,0,0,0,0,0,0,0,0,0,0,0],"id":0,"left_children":[1,3,5,7,-1,9,11,-1,-1,-1,-1,-1,-1],"loss_changes":[3.179706E2,2.718735E2,2.9104633E1,5.2357544E1,0E0,3.9730988E0,5.4044136E1,0E0,0E0,0E0,0E0,0E0,0E0],"parents":[2147483647,0,0,1,1,2,2,3,3,5,5,6,6],"right_children":[2,4,6,8,-1,10,12,-1,-1,-1,-1,-1,-1],"split_conditions":[4.651313E-1,8.239182E-1,8.996347E-1,2.0463306E-1,9.212327E-2,1.8683673E-1,7.526531E-1,-9.092321E-1,-8.473153E-2,1.862957E-2,1.01925366E-1,-4.7481942E-1,2.3966117E-2],"split_indices":[33,14,27,21,0,17,23,0,0,0,0,0,0],"split_type":[0,0,0,0,0,0,0,0,0,0,0,0,0],"sum_hessian":[1.0046495E2,1.2587807E1,8.7877144E1,7.2835107E0,5.304296E0,7.315178E1,1.4725359E1,6.1751504E0,1.1083603E0,6.8084993E0,6.6343285E1,1.5833719E0,1.3141987E1],"tree_param":{"num_deleted":"0","num_feature":"34","num_nodes":"13","size_leaf_vector":"1"}},{"base_weights":[1.6985016E-2,-2.79449E0,6.5868896E-1,-4.1346717E0,9.027726E-2,9.6392906E-1,-4.1091582E-1,-4.4628468E-1,6.121605E-3,1.7247856E-2,1.05122924E-1,-3.5704848E-1,8.127021E-2],"categories":[],"categories_nodes":[],"categories_segments":[],"categories_sizes":[],"default_left":[0,0,0,0,0,0,0,0,0,0,0,0,0],"id":1,"left_children":[1,3,5,7,-1,9,11,-1,-1,-1,-1,-1,-1],"loss_changes":[1.8578334E2,9.8557816E1,2.7761814E1,1.9860962E1,0E0,4.3449173E0,7.755782E1,0E0,0E0,0E0,0E0,0E0,0E0],"parents":[2147483647,0,0,1,1,2,2,3,3,5,5,6,6],"right_children":[2,4,6,8,-1,10,12,-1,-1,-1,-1,-1,-1],"split_conditions":[4.651313E-1,8.239182E-1,5.259985E-1,2.0775835E-1,9.027726E-2,1.8683673E-1,4.7102025E-1,-4.4628468E-1,6.121605E-3,1.7247856E-2,1.05122924E-1,-3.5704848E-1,8.127021E-2],"split_indices":[33,14,11,21,0,17,3,0,0,0,0,0,0],"split_type":[0,0,0,0,0,0,0,0,0,0,0,0,0],"sum_hessian":[1.00956154E2,1.813725E1,8.28189E1,1.3225114E1,4.9121375E0,6.450849E1,1.831041E1,1.2206757E1,1.0183578E0,6.704267E0,5.7804222E1,4.5761404E0,1.3734269E1],"tree_param":{"num_deleted":"0","num_feature":"34","num_nodes":"13","size_leaf_vector":"1"}},{"base_weights":[2.367648E-2,-2.1047919E0,6.513428E-1,9.289648E-2,-2.7703E0,9.773753E-1,-3.5943955E-1,-3.5321173E-1,8.254572E-2,3.525162E-2,1.0401287E-1,-2.6010752E-1,7.897579E-2],"categories":[],"categories_nodes":[],"categories_segments":[],"categories_sizes":[],"default_left":[0,0,0,0,0,0,0,0,0,0,0,0,0],"id":2,"left_children":[1,3,5,-1,7,9,11,-1,-1,-1,-1,-1,-1],"loss_changes":[1.3559155E2,4.924466E1,2.6171665E1,0E0,5.553383E1,1.9668846E0,5.3163483E1,0E0,0E0,0E0,0E0,0E0,0E0],"parents":[2147483647,0,0,1,1,2,2,4,4,5,5,6,6],"right_children":[2,4,6,-1,8,10,12,-1,-1,-1,-1,-1,-1],"split_conditions":[4.9361154E-1,1.0868322E-1,5.259985E-1,9.289648E-2,2.6166165E-1,2.3540375E-1,4.846513E-1,-3.5321173E-1,8.254572E-2,3.525162E-2,1.0401287E-1,-2.6010752E-1,7.897579E-2],"split_indices":[33,13,11,0,19,19,1,0,0,0,0,0,0],"split_type":[0,0,0,0,0,0,0,0,0,0,0,0,0],"sum_hessian":[9.946694E1,2.211609E1,7.7350845E1,3.907528E0,1.8208563E1,5.851093E1,1.883992E1,1.5039838E1,3.1687255E0,5.9437923E0,5.2567135E1,5.9569163E0,1.2883003E1],"tree_param":{"num_deleted":"0","num_feature":"34","num_nodes":"13","size_leaf_vector":"1"}},{"base_weights":[2.8546728E-2,-1.7403004E0,6.256761E-1,9.055696E-2,-2.2345073E0,9.6155953E-1,-3.1776837E-1,-2.766522E-1,8.0627255E-2,3.1138215E-2,1.029701E-1,-2.0141459E-1,7.650017E-2],"categories":[],"categories_nodes":[],"categories_segments":[],"categories_sizes":[],"default_left":[0,0,0,0,0,0,0,0,0,0,0,0,0],"id":3,"left_children":[1,3,5,-1,7,9,11,-1,-1,-1,-1,-1,-1],"loss_changes":[1.0462582E2,3.4719124E1,2.3761814E1,0E0,3.678096E1,2.1087837E0,3.8617355E1,0E0,0E0,0E0,0E0,0E0,0E0],"parents":[2147483647,0,0,1,1,2,2,4,4,5,5,6,6],"right_children":[2,4,6,-1,8,10,12,-1,-1,-1,-1,-1,-1],"split_conditions":[4.9361154E-1,1.0868322E-1,5.259985E-1,9.055696E-2,2.6166165E-1,5.35217E-1,4.846513E-1,-2.766522E-1,8.0627255E-2,3.1138215E-2,1.029701E-1,-2.0141459E-1,7.650017E-2],"split_indices":[33,13,11,0,19,33,1,0,0,0,0,0,0],"split_type":[0,0,0,0,0,0,0,0,0,0,0,0,0],"sum_hessian":[9.7024956E1,2.400416E1,7.30208E1,3.646936E0,2.0357224E1,5.383526E1,1.9185537E1,1.7402653E1,2.9545712E0,5.63529E0,4.819997E1,7.139653E0,1.2045884E1],"tree_param":{"num_deleted":"0","num_feature":"34","num_nodes":"13","size_leaf_vector":"1"}},{"base_weights":[3.1532265E-2,-1.4058635E0,6.4191234E-1,7.34397E-1,-2.4028876E0,1.0221297E0,-2.830112E-1,-3.7651148E-2,9.75498E-2,-2.5563878E-1,9.703157E-3,1.0424137E-1,8.591539E-3,9.930622E-2,-1.3931952E-1],"categories":[],"categories_nodes":[],"categories_segments":[],"categories_sizes":[],"default_left":[0,0,0,0,0,0,0,0,0,0,0,0,0,0,0],"id":4,"left_children":[1,3,5,7,9,11,13,-1,-1,-1,-1,-1,-1,-1,-1],"loss_changes":[8.41701E1,6.279922E1,2.3958496E1,3.0070558E0,7.82563E0,8.20343E-1,3.0270397E1,0E0,0E0,0E0,0E0,0E0,0E0,0E0,0E0],"parents":[2147483647,0,0,1,1,2,2,3,3,4,4,5,5,6,6],"right_children":[2,4,6,8,10,12,14,-1,-1,-1,-1,-1,-1,-1,-1],"split_conditions":[2.6166165E-1,1.2984039E-1,5.259985E-1,7.663829E-1,2.0775835E-1,7.366009E-1,4.3527305E-1,-3.7651148E-2,9.75498E-2,-2.5563878E-1,9.703157E-3,1.0424137E-1,8.591539E-3,9.930622E-2,-1.3931952E-1],"split_indices":[19,11,11,0,21,19,20,0,0,0,0,0,0,0,0],"split_type":[0,0,0,0,0,0,0,0,0,0,0,0,0,0,0],"sum_hessian":[9.39073E1,2.7602467E1,6.630484E1,8.855731E0,1.8746735E1,4.6914246E1,1.939059E1,1.4790691E0,7.3766623E0,1.7640955E1,1.1057793E0,4.5808327E1,1.1059196E0,9.0703745E0,1.0320217E1],"tree_param":{"num_deleted":"0","num_feature":"34","num_nodes":"15","size_leaf_vector":"1"}},{"base_weights":[3.3165462E-2,-1.2607129E0,6.176676E-1,7.087926E-1,-2.0967765E0,9.5946574E-1,-3.9622164E-1,-3.499425E-2,9.5788874E-2,-2.2257052E-1,9.235074E-3,1.0172099E-1,1.1089703E-2,9.637552E-2,-1.5116218E-1],"categories":[],"categories_nodes":[],"categories_segments":[],"categories_sizes":[],"default_left":[0,0,0,0,0,0,0,0,0,0,0,0,0,0,0],"id":5,"left_children":[1,3,5,7,9,11,13,-1,-1,-1,-1,-1,-1,-1,-1],"loss_changes":[6.9856804E1,4.8829147E1,2.2416485E1,2.7919059E0,5.9734573E0,2.2317848E0,2.6849716E1,0E0,0E0,0E0,0E0,0E0,0E0,0E0,0E0],"parents":[2147483647,0,0,1,1,2,2,3,3,4,4,5,5,6,6],"right_children":[2,4,6,8,10,12,14,-1,-1,-1,-1,-1,-1,-1,-1],"split_conditions":[2.6166165E-1,1.2984039E-1,8.996347E-1,7.663829E-1,2.0775835E-1,5.426441E-1,4.3527305E-1,-3.499425E-2,9.5788874E-2,-2.2257052E-1,9.235074E-3,1.0172099E-1,1.1089703E-2,9.637552E-2,-1.5116218E-1],"split_indices":[19,11,27,0,21,11,20,0,0,0,0,0,0,0,0],"split_type":[0,0,0,0,0,0,0,0,0,0,0,0,0,0,0],"sum_hessian":[9.0339966E1,2.7751402E1,6.258856E1,8.31532E0,1.943608E1,4.6848774E1,1.5739785E1,1.5066682E0,6.808652E0,1.833928E1,1.0968016E0,4.367781E1,3.1709642E0,7.1535783E0,8.586206E0],"tree_param":{"num_deleted":"0","num_feature":"34","num_nodes":"15","size_leaf_vector":"1"}},{"base_weights":[3.3941302E-2,-1.1516438E0,5.93835E-1,6.837275E-1,-1.8814988E0,1.0034521E0,-2.3874596E-1,-3.5370898E-2,9.456953E-2,-1.9958737E-1,8.789439E-3,1.02721706E-1,4.3984926E-3,-1.4315052E-1,7.339426E-2],"categories":[],"categories_nodes":[],"categories_segments":[],"categories_sizes":[],"default_left":[0,0,0,0,0,0,0,0,0,0,0,0,0,0,0],"id":6,"left_children":[1,3,5,7,9,11,13,-1,-1,-1,-1,-1,-1,-1,-1],"loss_changes":[5.8779953E1,3.9348415E1,2.0738188E1,2.7309446E0,4.8146896E0,8.777962E-1,2.4982874E1,0E0,0E0,0E0,0E0,0E0,0E0,0E0,0E0],"parents":[2147483647,0,0,1,1,2,2,3,3,4,4,5,5,6,6],"right_children":[2,4,6,8,10,12,14,-1,-1,-1,-1,-1,-1,-1,-1],"split_conditions":[2.6166165E-1,1.2984039E-1,5.259985E-1,1.5016675E-1,2.0775835E-1,7.366009E-1,4.7102025E-1,-3.5370898E-2,9.456953E-2,-1.9958737E-1,8.789439E-3,1.02721706E-1,4.3984926E-3,-1.4315052E-1,7.339426E-2],"split_indices":[19,11,11,21,21,19,3,0,0,0,0,0,0,0,0],"split_type":[0,0,0,0,0,0,0,0,0,0,0,0,0,0,0],"sum_hessian":[8.6520226E1,2.7413898E1,5.9106327E1,7.8177505E0,1.9596148E1,3.947835E1,1.9627975E1,1.5055033E0,6.3122473E0,1.8507837E1,1.0883112E0,3.8455242E1,1.0231085E0,8.604729E0,1.1023247E1],"tree_param":{"num_deleted":"0","num_feature":"34","num_nodes":"15","size_leaf_vector":"1"}},{"base_weights":[3.4018643E-2,-1.0657982E0,5.718369E-1,5.481693E-1,-1.7708117E0,1.004014E0,-2.2694072E-1,-5.6735266E-2,9.3381725E-2,-1.8563496E-1,-1.2739899E-2,1.0268618E-1,1.9014945E-2,-1.7990164E-1,7.618503E-2],"categories":[],"categories_nodes":[],"categories_segments":[],"categories_sizes":[],"default_left":[0,0,0,0,0,0,0,0,0,0,0,0,0,0,0],"id":7,"left_children":[1,3,5,7,9,11,13,-1,-1,-1,-1,-1,-1,-1,-1],"loss_changes":[4.9956776E1,3.2543877E1,1.9794392E1,4.487381E0,2.5114746E0,4.9209595E-1,3.3571598E1,0E0,0E0,0E0,0E0,0E0,0E0,0E0,0E0],"parents":[2147483647,0,0,1,1,2,2,3,3,4,4,5,5,6,6],"right_children":[2,4,6,8,10,12,14,-1,-1,-1,-1,-1,-1,-1,-1],"split_conditions":[2.6166165E-1,1.3198707E-1,4.457783E-1,7.663829E-1,9.281241E-2,7.461941E-1,4.846513E-1,-5.6735266E-2,9.3381725E-2,-1.8563496E-1,-1.2739899E-2,1.0268618E-1,1.9014945E-2,-1.7990164E-1,7.618503E-2],"split_indices":[19,11,9,0,5,19,1,0,0,0,0,0,0,0,0],"split_type":[0,0,0,0,0,0,0,0,0,0,0,0,0,0,0],"sum_hessian":[8.242719E1,2.6747637E1,5.5679554E1,8.199415E0,1.8548222E1,3.5964237E1,1.971532E1,1.9853733E0,6.2140417E0,1.7507408E1,1.0408132E0,3.4727608E1,1.236626E0,7.2960086E0,1.2419311E1],"tree_param":{"num_deleted":"0","num_feature":"34","num_nodes":"15","size_leaf_vector":"1"}},{"base_weights":[3.335519E-2,-9.9584514E-1,5.513601E-1,6.373879E-1,-1.5969411E0,1.0201949E-1,-1.7057449E-1,-3.3128913E-2,9.165385E-2,-1.702786E-1,1.0401422E-2,-8.383328E-2,9.567395E-2],"categories":[],"categories_nodes":[],"categories_segments":[],"categories_sizes":[],"default_left":[0,0,0,0,0,0,0,0,0,0,0,0,0],"id":8,"left_children":[1,3,5,7,9,-1,11,-1,-1,-1,-1,-1,-1],"loss_changes":[4.281726E1,2.7426725E1,1.8242342E1,2.4538217E0,3.7686195E0,0E0,1.7268827E1,0E0,0E0,0E0,0E0,0E0,0E0],"parents":[2147483647,0,0,1,1,2,2,3,3,4,4,6,6],"right_children":[2,4,6,8,10,-1,12,-1,-1,-1,-1,-1,-1],"split_conditions":[2.6166165E-1,1.2984039E-1,8.855536E-1,1.7654975E-1,2.0775835E-1,1.0201949E-1,9.7042835E-1,-3.3128913E-2,9.165385E-2,-1.702786E-1,1.0401422E-2,-8.383328E-2,9.567395E-2],"split_indices":[19,11,29,17,21,0,33,0,0,0,0,0,0],"split_type":[0,0,0,0,0,0,0,0,0,0,0,0,0],"sum_hessian":[7.828297E1,2.5900326E1,5.2382645E1,6.951658E0,1.894867E1,3.1507849E1,2.0874796E1,1.513367E0,5.4382906E0,1.7837618E1,1.1110507E0,1.3270457E1,7.604338E0],"tree_param":{"num_deleted":"0","num_feature":"34","num_nodes":"13","size_leaf_vector":"1"}},{"base_weights":[3.3911552E-2,-9.370029E-1,5.288311E-1,5.1014304E-1,-1.5406754E0,9.819095E-1,-2.0366092E-1,-5.161303E-2,9.085531E-2,-1.6472626E-1,-2.4221148E-2,1.0119625E-1,1.0976128E-2,3.5480328E-2,-1.6395448E-1],"categories":[],"categories_nodes":[],"categories_segments":[],"categories_sizes":[],"default_left":[0,0,0,0,0,0,0,0,0,0,0,0,0,0,0],"id":9,"left_children":[1,3,5,7,9,11,13,-1,-1,-1,-1,-1,-1,-1,-1],"loss_changes":[3.6804276E1,2.338853E1,1.7022072E1,3.8900497E0,2.1622047E0,7.142639E-1,1.6779179E1,0E0,0E0,0E0,0E0,0E0,0E0,0E0,0E0],"parents":[2147483647,0,0,1,1,2,2,3,3,4,4,5,5,6,6],"right_children":[2,4,6,8,10,12,14,-1,-1,-1,-1,-1,-1,-1,-1],"split_conditions":[2.6166165E-1,1.3198707E-1,8.8592684E-1,1.5016675E-1,2.192435E-1,7.52759E-1,8.026059E-1,-5.161303E-2,9.085531E-2,-1.6472626E-1,-2.4221148E-2,1.0119625E-1,1.0976128E-2,3.5480328E-2,-1.6395448E-1],"split_indices":[19,11,27,21,17,19,12,0,0,0,0,0,0,0,0],"split_type":[0,0,0,0,0,0,0,0,0,0,0,0,0,0,0],"sum_hessian":[7.456068E1,2.4872839E1,4.9687836E1,7.3670974E0,1.7505743E1,3.0488722E1,1.9199116E1,1.9775659E0,5.3895316E0,1.5929511E1,1.5762316E0,2.9318151E1,1.1705704E0,1.4364985E1,4.8341303E0],"tree_param":{"num_deleted":"0","num_feature":"34","num_nodes":"15","size_leaf_vector":"1"}},{"base_weights":[3.158507E-2,-8.866975E-1,5.061673E-1,5.9230924E-1,-1.413309E0,9.762381E-1,-1.9563496E-1,-3.331425E-2,8.894659E-2,-1.5182127E-1,1.1456848E-2,1.0094211E-1,1.40128285E-2,-1.4081882E-1,7.2317764E-2],"categories":[],"categories_nodes":[],"categories_segments":[],"categories_sizes":[],"default_left":[0,0,0,0,0,0,0,0,0,0,0,0,0,0,0],"id":10,"left_children":[1,3,5,7,9,11,13,-1,-1,-1,-1,-1,-1,-1,-1],"loss_changes":[3.1723747E1,2.0164738E1,1.600924E1,2.2819474E0,3.1543236E0,6.598816E-1,2.3374949E1,0E0,0E0,0E0,0E0,0E0,0E0,0E0,0E0],"parents":[2147483647,0,0,1,1,2,2,3,3,4,4,5,5,6,6],"right_children":[2,4,6,8,10,12,14,-1,-1,-1,-1,-1,-1,-1,-1],"split_conditions":[2.6166165E-1,1.2984039E-1,4.457783E-1,4.5932916E-1,2.0775835E-1,7.5459146E-1,4.7102025E-1,-3.331425E-2,8.894659E-2,-1.5182127E-1,1.1456848E-2,1.0094211E-1,1.40128285E-2,-1.4081882E-1,7.2317764E-2],"split_indices":[19,11,9,31,21,21,3,0,0,0,0,0,0,0,0],"split_type":[0,0,0,0,0,0,0,0,0,0,0,0,0,0,0],"sum_hessian":[7.076431E1,2.381521E1,4.69491E1,6.220359E0,1.7594852E1,2.7882328E1,1.9066772E1,1.482433E0,4.737926E0,1.6470327E1,1.1245241E0,2.6618622E1,1.2637073E0,7.989907E0,1.1076866E1],"tree_param":{"num_deleted":"0","num_feature":"34","num_nodes":"15","size_leaf_vector":"1"}},{"base_weights":[3.134435E-2,-8.422276E-1,4.875867E-1,4.742458E-1,-1.3848325E0,9.988311E-2,-1.4729589E-1,-5.18607E-2,8.806234E-2,-1.4917022E-1,-1.8271865E-2,-6.840849E-2,9.311508E-2],"categories":[],"categories_nodes":[],"categories_segments":[],"categories_sizes":[],"default_left":[0,0,0,0,0,0,0,0,0,0,0,0,0],"id":11,"left_children":[1,3,5,7,9,-1,11,-1,-1,-1,-1,-1,-1],"loss_changes":[2.7477287E1,1.7562E1,1.4832727E1,3.544177E0,1.9131927E0,0E0,1.282485E1,0E0,0E0,0E0,0E0,0E0,0E0],"parents":[2147483647,0,0,1,1,2,2,3,3,4,4,6,6],"right_children":[2,4,6,8,10,-1,12,-1,-1,-1,-1,-1,-1],"split_conditions":[2.6166165E-1,1.3198707E-1,8.855536E-1,7.663829E-1,2.192435E-1,9.988311E-2,9.7042835E-1,-5.18607E-2,8.806234E-2,-1.4917022E-1,-1.8271865E-2,-6.840849E-2,9.311508E-2],"split_indices":[19,11,29,0,17,0,33,0,0,0,0,0,0],"split_type":[0,0,0,0,0,0,0,0,0,0,0,0,0],"sum_hessian":[6.6910965E1,2.2666046E1,4.424492E1,6.652257E0,1.6013788E1,2.419137E1,2.0053549E1,1.8518026E0,4.8004546E0,1.4485139E1,1.5286498E0,1.3633332E1,6.4202166E0],"tree_param":{"num_deleted":"0","num_feature":"34","num_nodes":"13","size_leaf_vector":"1"}},{"base_weights":[3.1196333E-2,-8.032163E-1,4.6787536E-1,5.4575694E-1,-1.2759048E0,9.565492E-1,-1.7584522E-1,-3.27747E-2,8.574632E-2,-1.421933E-1,5.188639E-2,9.944455E-2,7.4534975E-3,9.299976E-2,-7.4405566E-2],"categories":[],"categories_nodes":[],"categories_segments":[],"categories_sizes":[],"default_left":[0,0,0,0,0,0,0,0,0,0,0,0,0,0,0],"id":12,"left_children":[1,3,5,7,9,11,13,-1,-1,-1,-1,-1,-1,-1,-1],"loss_changes":[2.3931583E1,1.5092832E1,1.3716786E1,2.066866E0,5.198181E0,7.4943733E-1,1.2901628E1,0E0,0E0,0E0,0E0,0E0,0E0,0E0,0E0],"parents":[2147483647,0,0,1,1,2,2,3,3,4,4,5,5,6,6],"right_children":[2,4,6,8,10,12,14,-1,-1,-1,-1,-1,-1,-1,-1],"split_conditions":[2.124698E-1,1.2984039E-1,8.8592684E-1,4.5932916E-1,8.070552E-1,7.52759E-1,4.3527305E-1,-3.27747E-2,8.574632E-2,-1.421933E-1,5.188639E-2,9.944455E-2,7.4534975E-3,9.299976E-2,-7.4405566E-2],"split_indices":[21,11,27,31,18,19,20,0,0,0,0,0,0,0,0],"split_type":[0,0,0,0,0,0,0,0,0,0,0,0,0,0,0],"sum_hessian":[6.3647877E1,2.1577639E1,4.207024E1,5.558899E0,1.601874E1,2.363898E1,1.8431257E1,1.4484371E0,4.1104617E0,1.5005571E1,1.0131674E0,2.2542938E1,1.0960426E0,6.0398593E0,1.2391398E1],"tree_param":{"num_deleted":"0","num_feature":"34","num_nodes":"15","size_leaf_vector":"1"}},{"base_weights":[3.2482773E-2,-7.705641E-1,4.481539E-1,4.3973392E-1,-1.273265E0,9.484562E-1,-1.6986586E-1,-4.867959E-2,8.5789405E-2,-1.3762638E-1,-1.58718E-2,9.897512E-2,7.519178E-3,-1.1547692E-1,6.862524E-2],"categories":[],"categories_nodes":[],"categories_segments":[],"categories_sizes":[],"default_left":[0,0,0,0,0,0,0,0,0,0,0,0,0,0,0],"id":13,"left_children":[1,3,5,7,9,11,13,-1,-1,-1,-1,-1,-1,-1,-1],"loss_changes":[2.0853985E1,1.3533184E1,1.2874145E1,3.129991E0,1.5405025E0,7.5045013E-1,1.7017424E1,0E0,0E0,0E0,0E0,0E0,0E0,0E0,0E0],"parents":[2147483647,0,0,1,1,2,2,3,3,4,4,5,5,6,6],"right_children":[2,4,6,8,10,12,14,-1,-1,-1,-1,-1,-1,-1,-1],"split_conditions":[2.6166165E-1,1.3198707E-1,4.457783E-1,1.7654975E-1,2.192435E-1,7.5459146E-1,4.6869147E-1,-4.867959E-2,8.5789405E-2,-1.3762638E-1,-1.58718E-2,9.897512E-2,7.519178E-3,-1.1547692E-1,6.862524E-2],"split_indices":[19,11,9,17,17,21,5,0,0,0,0,0,0,0,0],"split_type":[0,0,0,0,0,0,0,0,0,0,0,0,0,0,0],"sum_hessian":[6.043932E1,2.0322985E1,4.0116333E1,6.000792E0,1.4322193E1,2.1874065E1,1.8242268E1,1.8150326E0,4.1857595E0,1.2895648E1,1.4265456E0,2.075902E1,1.1150459E0,8.320863E0,9.921405E0],"tree_param":{"num_deleted":"0","num_feature":"34","num_nodes":"15","size_leaf_vector":"1"}},{"base_weights":[3.1364895E-2,-7.4264145E-1,4.3289465E-1,5.0381386E-1,-1.1868874E0,9.8078184E-2,-1.19171314E-1,-3.633451E-2,8.267508E-2,-1.3155709E-1,1.107873E-2,-5.6172084E-2,9.044208E-2],"categories":[],"categories_nodes":[],"categories_segments":[],"categories_sizes":[],"default_left":[0,0,0,0,0,0,0,0,0,0,0,0,0],"id":14,"left_children":[1,3,5,7,9,-1,11,-1,-1,-1,-1,-1,-1],"loss_changes":[1.8390593E1,1.1798431E1,1.1886806E1,1.9853472E0,2.685711E0,0E0,9.692002E0,0E0,0E0,0E0,0E0,0E0,0E0],"parents":[2147483647,0,0,1,1,2,2,3,3,4,4,6,6],"right_children":[2,4,6,8,10,-1,12,-1,-1,-1,-1,-1,-1],"split_conditions":[2.124698E-1,1.2984039E-1,8.855536E-1,7.6444185E-1,8.3291245E-1,9.8078184E-2,9.7042835E-1,-3.633451E-2,8.267508E-2,-1.3155709E-1,1.107873E-2,-5.6172084E-2,9.044208E-2],"split_indices":[21,11,29,4,6,0,33,0,0,0,0,0,0],"split_type":[0,0,0,0,0,0,0,0,0,0,0,0,0],"sum_hessian":[5.7139915E1,1.9227198E1,3.791272E1,5.016875E0,1.4210322E1,1.8638618E1,1.9274101E1,1.3273937E0,3.689481E0,1.2915747E1,1.2945766E0,1.3771309E1,5.502793E0],"tree_param":{"num_deleted":"0","num_feature":"34","num_nodes":"13","size_leaf_vector":"1"}},{"base_weights":[3.196028E-2,-7.1429384E-1,4.140643E-1,4.0602857E-1,-1.1864401E0,9.250028E-1,-1.5742242E-1,-4.6777945E-2,8.2770936E-2,-1.2874821E-1,-1.3921804E-2,1.7754076E-3,9.726156E-2,9.114586E-2,-7.033339E-2],"categories":[],"categories_nodes":[],"categories_segments":[],"categories_sizes":[],"default_left":[0,0,0,0,0,0,0,0,0,0,0,0,0,0,0],"id":15,"left_children":[1,3,5,7,9,11,13,-1,-1,-1,-1,-1,-1,-1,-1],"loss_changes":[1.609306E1,1.0599421E1,1.102911E1,2.7513256E0,1.2716217E0,8.390808E-1,1.1406056E1,0E0,0E0,0E0,0E0,0E0,0E0,0E0,0E0],"parents":[2147483647,0,0,1,1,2,2,3,3,4,4,5,5,6,6],"right_children":[2,4,6,8,10,12,14,-1,-1,-1,-1,-1,-1,-1,-1],"split_conditions":[2.6166165E-1,1.3198707E-1,5.259985E-1,7.6444185E-1,2.192435E-1,4.10614E-1,4.3527305E-1,-4.6777945E-2,8.2770936E-2,-1.2874821E-1,-1.3921804E-2,1.7754076E-3,9.726156E-2,9.114586E-2,-7.033339E-2],"split_indices":[19,11,11,4,17,16,20,0,0,0,0,0,0,0,0],"split_type":[0,0,0,0,0,0,0,0,0,0,0,0,0,0,0],"sum_hessian":[5.4400593E1,1.812766E1,3.627293E1,5.4161344E0,1.2711527E1,1.8824379E1,1.7448553E1,1.7273641E0,3.6887705E0,1.1383733E1,1.3277938E0,1.0071075E0,1.781727E1,5.672443E0,1.177611E1],"tree_param":{"num_deleted":"0","num_feature":"34","num_nodes":"15","size_leaf_vector":"1"}},{"base_weights":[3.1856574E-2,-6.9187814E-1,3.9893505E-1,4.62595E-1,-1.1098493E0,9.690184E-2,-1.10414386E-1,-3.503608E-2,8.017495E-2,-1.2458145E-1,7.966218E-3,-5.1035088E-2,8.28706E-2],"categories":[],"categories_nodes":[],"categories_segments":[],"categories_sizes":[],"default_left":[0,0,0,0,0,0,0,0,0,0,0,0,0],"id":16,"left_children":[1,3,5,7,9,-1,11,-1,-1,-1,-1,-1,-1],"loss_changes":[1.4278215E1,9.248369E0,1.0445265E1,1.8021866E0,2.2963161E0,0E0,7.822443E0,0E0,0E0,0E0,0E0,0E0,0E0],"parents":[2147483647,0,0,1,1,2,2,3,3,4,4,6,6],"right_children":[2,4,6,8,10,-1,12,-1,-1,-1,-1,-1,-1],"split_conditions":[2.124698E-1,1.2984039E-1,8.855536E-1,4.5932916E-1,2.5075367E-1,9.690184E-2,7.69418E-1,-3.503608E-2,8.017495E-2,-1.2458145E-1,7.966218E-3,-5.1035088E-2,8.28706E-2],"split_indices":[21,11,29,31,19,0,17,0,0,0,0,0,0],"split_type":[0,0,0,0,0,0,0,0,0,0,0,0,0],"sum_hessian":[5.1705753E1,1.7102167E1,3.4603584E1,4.5175467E0,1.258462E1,1.5902471E1,1.8701115E1,1.3201342E0,3.1974125E0,1.1251234E1,1.3333863E0,1.343585E1,5.265264E0],"tree_param":{"num_deleted":"0","num_feature":"34","num_nodes":"13","size_leaf_vector":"1"}},{"base_weights":[3.220932E-2,-6.626956E-1,3.800688E-1,4.428009E-1,-1.0677035E0,9.133235E-1,-1.4496647E-1,-3.3573236E-2,7.8064196E-2,-1.2060888E-1,7.5216414E-3,9.678344E-2,2.4766305E-3,-9.362469E-2,6.373018E-2],"categories":[],"categories_nodes":[],"categories_segments":[],"categories_sizes":[],"default_left":[0,0,0,0,0,0,0,0,0,0,0,0,0,0,0],"id":17,"left_children":[1,3,5,7,9,11,13,-1,-1,-1,-1,-1,-1,-1,-1],"loss_changes":[1.2430297E1,8.16087E0,9.7102585E0,1.6589601E0,2.1247282E0,8.0471134E-1,1.18007965E1,0E0,0E0,0E0,0E0,0E0,0E0,0E0,0E0],"parents":[2147483647,0,0,1,1,2,2,3,3,4,4,5,5,6,6],"right_children":[2,4,6,8,10,12,14,-1,-1,-1,-1,-1,-1,-1,-1],"split_conditions":[2.124698E-1,1.2984039E-1,4.457783E-1,7.6444185E-1,2.5075367E-1,7.477086E-1,4.846513E-1,-3.3573236E-2,7.8064196E-2,-1.2060888E-1,7.5216414E-3,9.678344E-2,2.4766305E-3,-9.362469E-2,6.373018E-2],"split_indices":[21,11,9,4,19,21,1,0,0,0,0,0,0,0,0],"split_type":[0,0,0,0,0,0,0,0,0,0,0,0,0,0,0],"sum_hessian":[4.9380447E1,1.6171076E1,3.3209373E1,4.3108916E0,1.1860184E1,1.610882E1,1.7100552E1,1.3064656E0,3.0044258E0,1.05299425E1,1.3302406E0,1.5093642E1,1.0151783E0,8.403452E0,8.6971E0],"tree_param":{"num_deleted":"0","num_feature":"34","num_nodes":"15","size_leaf_vector":"1"}},{"base_weights":[3.1654418E-2,-6.437326E-1,3.6620912E-1,3.647297E-1,-1.0866925E0,8.972133E-1,-1.4305533E-1,-4.6846088E-2,7.979772E-2,-1.1826237E-1,-1.151872E-2,1.4617227E-3,9.549248E-2,8.872836E-2,-6.134897E-2],"categories":[],"categories_nodes":[],"categories_segments":[],"categories_sizes":[],"default_left":[0,0,0,0,0,0,0,0,0,0,0,0,0,0,0],"id":18,"left_children":[1,3,5,7,9,11,13,-1,-1,-1,-1,-1,-1,-1,-1],"loss_changes":[1.1029944E1,7.627454E0,8.939816E0,2.4274175E0,9.354143E-1,8.055582E-1,9.024309E0,0E0,0E0,0E0,0E0,0E0,0E0,0E0,0E0],"parents":[2147483647,0,0,1,1,2,2,3,3,4,4,5,5,6,6],"right_children":[2,4,6,8,10,12,14,-1,-1,-1,-1,-1,-1,-1,-1],"split_conditions":[2.6166165E-1,1.3198707E-1,5.259985E-1,1.7654975E-1,2.192435E-1,4.498428E-1,4.3527305E-1,-4.6846088E-2,7.979772E-2,-1.1826237E-1,-1.151872E-2,1.4617227E-3,9.549248E-2,8.872836E-2,-6.134897E-2],"split_indices":[19,11,11,17,17,16,20,0,0,0,0,0,0,0,0],"split_type":[0,0,0,0,0,0,0,0,0,0,0,0,0,0,0],"sum_hessian":[4.677171E1,1.5187527E1,3.1584183E1,4.688984E0,1.0498543E1,1.5089134E1,1.649505E1,1.5762926E0,3.112691E0,9.357251E0,1.1412919E0,1.0030186E0,1.4086115E1,4.892803E0,1.1602246E1],"tree_param":{"num_deleted":"0","num_feature":"34","num_nodes":"15","size_leaf_vector":"1"}},{"base_weights":[3.1675022E-2,-6.307264E-1,3.543885E-1,-8.791106E-1,6.785507E-2,9.520983E-2,-1.0169398E-1,3.8754813E-2,-1.12829685E-1,-4.2887844E-2,1.0229116E-1],"categories":[],"categories_nodes":[],"categories_segments":[],"categories_sizes":[],"default_left":[0,0,0,0,0,0,0,0,0,0,0],"id":19,"left_children":[1,3,5,7,-1,-1,9,-1,-1,-1,-1],"loss_changes":[9.960055E0,5.565857E0,8.620353E0,4.6287766E0,0E0,0E0,7.296653E0,0E0,0E0,0E0,0E0],"parents":[2147483647,0,0,1,1,2,2,3,3,6,6],"right_children":[2,4,6,8,-1,-1,10,-1,-1,-1,-1],"split_conditions":[5.35217E-1,2.6166165E-1,8.855536E-1,7.447979E-1,6.785507E-2,9.520983E-2,9.944121E-1,3.8754813E-2,-1.12829685E-1,-4.2887844E-2,1.0229116E-1],"split_indices":[33,19,29,12,0,0,31,0,0,0,0],"split_type":[0,0,0,0,0,0,0,0,0,0,0],"sum_hessian":[4.454765E1,1.42806835E1,3.0266968E1,1.2279652E1,2.0010316E0,1.2628881E1,1.7638086E1,1.9273463E0,1.0352305E1,1.4142277E1,3.495809E0],"tree_param":{"num_deleted":"0","num_feature":"34","num_nodes":"11","size_leaf_vector":"1"}},{"base_weights":[3.4008592E-2,-7.283384E-1,2.861561E-1,-9.583732E-1,5.807146E-2,6.830395E-1,-1.3567354E-1,-1.5764337E-2,-1.04362726E-1,-1.522663E-2,8.8739365E-2,-5.1567256E-2,9.975347E-2],"categories":[],"categories_nodes":[],"categories_segments":[],"categories_sizes":[],"default_left":[0,0,0,0,0,0,0,0,0,0,0,0,0],"id":20,"left_children":[1,3,5,7,-1,9,11,-1,-1,-1,-1,-1,-1],"loss_changes":[8.623328E0,3.9178877E0,5.7202463E0,5.093584E-1,0E0,3.1197567E0,7.8905497E0,0E0,0E0,0E0,0E0,0E0,0E0],"parents":[2147483647,0,0,1,1,2,2,3,3,5,5,6,6],"right_children":[2,4,6,8,-1,10,12,-1,-1,-1,-1,-1,-1],"split_conditions":[4.651313E-1,8.239182E-1,8.8592684E-1,7.613706E-1,5.807146E-2,1.8683673E-1,9.944121E-1,-1.5764337E-2,-1.04362726E-1,-1.522663E-2,8.8739365E-2,-5.1567256E-2,9.975347E-2],"split_indices":[33,14,27,8,0,17,31,0,0,0,0,0,0],"split_type":[0,0,0,0,0,0,0,0,0,0,0,0,0],"sum_hessian":[4.277661E1,1.0162524E1,3.2614086E1,8.871464E0,1.2910599E0,1.648487E1,1.6129215E1,1.1278142E0,7.74365E0,3.290345E0,1.3194526E1,1.2486918E1,3.6422973E0],"tree_param":{"num_deleted":"0","num_feature":"34","num_nodes":"13","size_leaf_vector":"1"}},{"base_weights":[3.4160268E-2,-5.8133346E-1,3.2390472E-1,-8.2291156E-1,6.560262E-2,9.381996E-2,-8.60065E-2,5.6086183E-2,-1.021893E-1,-3.926411E-2,9.704905E-2],"categories":[],"categories_nodes":[],"categories_segments":[],"categories_sizes":[],"default_left":[0,0,0,0,0,0,0,0,0,0,0],"id":21,"left_children":[1,3,5,7,-1,-1,9,-1,-1,-1,-1],"loss_changes":[7.7131176E0,4.683849E0,7.4665155E0,3.8889446E0,0E0,0E0,6.3769755E0,0E0,0E0,0E0,0E0],"parents":[2147483647,0,0,1,1,2,2,3,3,6,6],"right_children":[2,4,6,8,-1,-1,10,-1,-1,-1,-1],"split_conditions":[5.35217E-1,2.6166165E-1,8.752257E-1,1.0868322E-1,6.560262E-2,9.381996E-2,9.944121E-1,5.6086183E-2,-1.021893E-1,-3.926411E-2,9.704905E-2],"split_indices":[33,19,27,13,0,0,31,0,0,0,0],"split_type":[0,0,0,0,0,0,0,0,0,0,0],"sum_hessian":[4.1194653E1,1.2863279E1,2.8331371E1,1.1042352E1,1.8209275E0,1.0823074E1,1.7508297E1,1.1595871E0,9.882765E0,1.4056838E1,3.4514596E0],"tree_param":{"num_deleted":"0","num_feature":"34","num_nodes":"11","size_leaf_vector":"1"}},{"base_weights":[3.710962E-2,-5.49804E-1,3.081431E-1,-7.8629446E-1,6.48218E-2,8.639107E-1,-1.2861437E-1,3.8642254E-2,-1.0512936E-1,1.7031683E-3,9.359944E-2,-6.2147077E-2,7.461512E-2],"categories":[],"categories_nodes":[],"categories_segments":[],"categories_sizes":[],"default_left":[0,0,0,0,0,0,0,0,0,0,0,0,0],"id":22,"left_children":[1,3,5,7,-1,9,11,-1,-1,-1,-1,-1,-1],"loss_changes":[6.6322727E0,4.24782E0,7.0131025E0,3.9709892E0,0E0,7.5580025E-1,7.70341E0,0E0,0E0,0E0,0E0,0E0,0E0],"parents":[2147483647,0,0,1,1,2,2,3,3,5,5,6,6],"right_children":[2,4,6,8,-1,10,12,-1,-1,-1,-1,-1,-1],"split_conditions":[5.35217E-1,8.070552E-1,5.259985E-1,7.447979E-1,6.48218E-2,4.90507E-1,5.1682955E-1,3.8642254E-2,-1.0512936E-1,1.7031683E-3,9.359944E-2,-6.2147077E-2,7.461512E-2],"split_indices":[33,18,11,12,0,20,1,0,0,0,0,0,0],"split_type":[0,0,0,0,0,0,0,0,0,0,0,0,0],"sum_hessian":[3.962817E1,1.2193982E1,2.7434189E1,1.0470725E1,1.7232566E0,1.1641957E1,1.57922325E1,1.8455034E0,8.625222E0,1.0101719E0,1.0631785E1,1.0286319E1,5.5059137E0],"tree_param":{"num_deleted":"0","num_feature":"34","num_nodes":"13","size_leaf_vector":"1"}},{"base_weights":[3.8645014E-2,-5.286927E-1,2.95915E-1,3.6645788E-1,-9.6479744E-1,9.2028715E-2,-8.1221156E-2,-3.5058647E-2,7.456303E-2,-1.0779078E-1,-1.6846104E-2,-4.1148655E-2,8.529097E-2],"categories":[],"categories_nodes":[],"categories_segments":[],"categories_sizes":[],"default_left":[0,0,0,0,0,0,0,0,0,0,0,0,0],"id":23,"left_children":[1,3,5,7,9,-1,11,-1,-1,-1,-1,-1,-1],"loss_changes":[5.828172E0,5.226391E0,6.5210743E0,1.5701985E0,5.992212E-1,0E0,5.8998404E0,0E0,0E0,0E0,0E0,0E0,0E0],"parents":[2147483647,0,0,1,1,2,2,3,3,4,4,6,6],"right_children":[2,4,6,8,10,-1,12,-1,-1,-1,-1,-1,-1],"split_conditions":[2.6166165E-1,1.3198707E-1,8.855536E-1,1.7654975E-1,2.0846058E-1,9.2028715E-2,9.7042835E-1,-3.5058647E-2,7.456303E-2,-1.0779078E-1,-1.6846104E-2,-4.1148655E-2,8.529097E-2],"split_indices":[19,11,29,17,17,0,33,0,0,0,0,0,0],"split_type":[0,0,0,0,0,0,0,0,0,0,0,0,0],"sum_hessian":[3.7858345E1,1.1482301E1,2.6376045E1,3.8137927E0,7.6685076E0,9.390047E0,1.6985998E1,1.3452367E0,2.4685562E0,6.4051466E0,1.263361E0,1.2962542E1,4.023456E0],"tree_param":{"num_deleted":"0","num_feature":"34","num_nodes":"13","size_leaf_vector":"1"}},{"base_weights":[3.8518E-2,-6.38282E-1,2.4114576E-1,-8.604781E-1,5.2564915E-2,6.5326416E-1,-1.0532125E-1,-9.5699765E-2,-1.4442339E-2,-1.3432543E-2,8.783939E-2,-8.666502E-2,6.1583083E-2],"categories":[],"categories_nodes":[],"categories_segments":[],"categories_sizes":[],"default_left":[0,0,0,0,0,0,0,0,0,0,0,0,0],"id":24,"left_children":[1,3,5,7,-1,9,11,-1,-1,-1,-1,-1,-1],"loss_changes":[5.2737293E0,2.7478516E0,4.2748413E0,4.031148E-1,0E0,2.5281081E0,9.792817E0,0E0,0E0,0E0,0E0,0E0,0E0],"parents":[2147483647,0,0,1,1,2,2,3,3,5,5,6,6],"right_children":[2,4,6,8,-1,10,12,-1,-1,-1,-1,-1,-1],"split_conditions":[4.651313E-1,8.239182E-1,4.4252905E-1,7.85595E-1,5.2564915E-2,1.8683673E-1,4.7102025E-1,-9.5699765E-2,-1.4442339E-2,-1.3432543E-2,8.783939E-2,-8.666502E-2,6.1583083E-2],"split_indices":[33,14,7,26,0,17,3,0,0,0,0,0,0],"split_type":[0,0,0,0,0,0,0,0,0,0,0,0,0],"sum_hessian":[3.6333145E1,7.8760867E0,2.8457056E1,6.832472E0,1.0436146E0,1.2592694E1,1.5864363E1,5.7243767E0,1.108095E0,2.889047E0,9.703648E0,7.6190658E0,8.2452965E0],"tree_param":{"num_deleted":"0","num_feature":"34","num_nodes":"13","size_leaf_vector":"1"}},{"base_weights":[3.6820013E-2,8.729016E-2,-1.1876852E-1,-1.8502471E-1,8.9929946E-2,-2.6924947E-2,9.002516E-2],"categories":[],"categories_nodes":[],"categories_segments":[],"categories_sizes":[],"default_left":[0,0,0,0,0,0,0],"id":25,"left_children":[1,-1,3,-1,5,-1,-1],"loss_changes":[4.75228E0,0E0,1.1371626E1,0E0,8.574278E0,0E0,0E0],"parents":[2147483647,0,0,2,2,4,4],"right_children":[2,-1,4,-1,6,-1,-1],"split_conditions":[3.9296868E-1,8.729016E-2,3.8932863E-1,-1.8502471E-1,7.0225567E-1,-2.6924947E-2,9.002516E-2],"split_indices":[20,0,28,0,21,0,0],"split_type":[0,0,0,0,0,0,0],"sum_hessian":[3.4735233E1,4.7264624E0,3.000877E1,2.381863E0,2.7626907E1,1.960473E1,8.022177E0],"tree_param":{"num_deleted":"0","num_feature":"34","num_nodes":"7","size_leaf_vector":"1"}},{"base_weights":[3.421355E-2,-4.815788E-1,2.6865622E-1,-7.081151E-1,6.0926218E-2,9.060697E-2,-9.146567E-2,3.494776E-2,-9.773092E-2,-4.39098E-2,6.851065E-2],"categories":[],"categories_nodes":[],"categories_segments":[],"categories_sizes":[],"default_left":[0,0,0,0,0,0,0,0,0,0,0],"id":26,"left_children":[1,3,5,7,-1,-1,9,-1,-1,-1,-1],"loss_changes":[4.3493013E0,3.214749E0,5.737552E0,3.128427E0,0E0,0E0,4.7954807E0,0E0,0E0,0E0,0E0],"parents":[2147483647,0,0,1,1,2,2,3,3,6,6],"right_children":[2,4,6,8,-1,-1,10,-1,-1,-1,-1],"split_conditions":[5.35217E-1,8.070552E-1,8.855536E-1,7.4524945E-1,6.0926218E-2,9.060697E-2,5.1682955E-1,3.494776E-2,-9.773092E-2,-4.39098E-2,6.851065E-2],"split_indices":[33,18,29,12,0,0,1,0,0,0,0],"split_type":[0,0,0,0,0,0,0,0,0,0,0],"sum_hessian":[3.3897385E1,1.026326E1,2.3634123E1,8.78891E0,1.4743501E0,7.984897E0,1.5649226E1,1.7226875E0,7.0662227E0,1.1110281E1,4.538945E0],"tree_param":{"num_deleted":"0","num_feature":"34","num_nodes":"11","size_leaf_vector":"1"}},{"base_weights":[3.617477E-2,8.5323565E-2,-1.10638514E-1,-1.599012E-1,1.120168E-1,-2.542663E-2,9.966806E-2],"categories":[],"categories_nodes":[],"categories_segments":[],"categories_sizes":[],"default_left":[0,0,0,0,0,0,0],"id":27,"left_children":[1,-1,3,-1,5,-1,-1],"loss_changes":[4.120197E0,0E0,9.900288E0,0E0,8.824681E0,0E0,0E0],"parents":[2147483647,0,0,2,2,4,4],"right_children":[2,-1,4,-1,6,-1,-1],"split_conditions":[3.9296868E-1,8.5323565E-2,4.540407E-1,-1.599012E-1,7.0225567E-1,-2.542663E-2,9.966806E-2],"split_indices":[20,0,20,0,21,0,0],"split_type":[0,0,0,0,0,0,0],"sum_hessian":[3.256078E1,4.226623E0,2.8334156E1,2.8827064E0,2.5451448E1,1.8503082E1,6.948367E0],"tree_param":{"num_deleted":"0","num_feature":"34","num_nodes":"7","size_leaf_vector":"1"}},{"base_weights":[3.4695055E-2,8.366486E-2,-1.0432343E-1,-1.5888035E-1,1.09703E-1,-2.0988882E-2,9.6114404E-2],"categories":[],"categories_nodes":[],"categories_segments":[],"categories_sizes":[],"default_left":[0,0,0,0,0,0,0],"id":28,"left_children":[1,-1,3,-1,5,-1,-1],"loss_changes":[3.747661E0,0E0,9.3471365E0,0E0,7.322519E0,0E0,0E0],"parents":[2147483647,0,0,2,2,4,4],"right_children":[2,-1,4,-1,6,-1,-1],"split_conditions":[3.9703566E-1,8.366486E-2,4.379832E-1,-1.5888035E-1,7.0225567E-1,-2.0988882E-2,9.6114404E-2],"split_indices":[16,0,28,0,21,0,0],"split_type":[0,0,0,0,0,0,0],"sum_hessian":[3.1832535E1,3.9615216E0,2.7871014E1,2.7025836E0,2.5168428E1,1.8847452E1,6.3209767E0],"tree_param":{"num_deleted":"0","num_feature":"34","num_nodes":"7","size_leaf_vector":"1"}},{"base_weights":[3.307957E-2,8.206486E-2,-9.7408116E-2,-1.5975986E-1,8.987008E-2,-1.5845615E-2,9.5857814E-2],"categories":[],"categories_nodes":[],"categories_segments":[],"categories_sizes":[],"default_left":[0,0,0,0,0,0,0],"id":29,"left_children":[1,-1,3,-1,5,-1,-1],"loss_changes":[3.3793821E0,0E0,8.132838E0,0E0,5.809687E0,0E0,0E0],"parents":[2147483647,0,0,2,2,4,4],"right_children":[2,-1,4,-1,6,-1,-1],"split_conditions":[3.9703566E-1,8.206486E-2,3.8932863E-1,-1.5975986E-1,6.744915E-1,-1.5845615E-2,9.5857814E-2],"split_indices":[16,0,28,0,17,0,0],"split_type":[0,0,0,0,0,0,0],"sum_hessian":[3.110574E1,3.6694412E0,2.7436298E1,2.2091668E0,2.522713E1,2.0254763E1,4.9723687E0],"tree_param":{"num_deleted":"0","num_feature":"34","num_nodes":"7","size_leaf_vector":"1"}},{"base_weights":[3.1226797E-2,-5.876743E-1,1.9093437E-1,-8.790811E-2,5.20578E-2,5.5067104E-1,-1.9070725E-1,-8.880606E-3,8.170337E-2,-1.10244356E-1,2.5965555E-2],"categories":[],"categories_nodes":[],"categories_segments":[],"categories_sizes":[],"default_left":[0,0,0,0,0,0,0,0,0,0,0],"id":30,"left_children":[1,3,5,-1,-1,7,9,-1,-1,-1,-1],"loss_changes":[3.2243423E0,2.6225474E0,3.644648E0,0E0,0E0,2.3770142E0,5.728062E0,0E0,0E0,0E0,0E0],"parents":[2147483647,0,0,1,1,2,2,5,5,6,6],"right_children":[2,4,6,-1,-1,8,10,-1,-1,-1,-1],"split_conditions":[4.5839152E-1,8.239182E-1,5.1952213E-1,-8.790811E-2,5.20578E-2,5.35217E-1,7.0225567E-1,-8.880606E-3,8.170337E-2,-1.10244356E-1,2.5965555E-2],"split_indices":[33,14,13,0,0,33,21,0,0,0,0],"split_type":[0,0,0,0,0,0,0,0,0,0,0],"sum_hessian":[3.0485575E1,5.703521E0,2.4782055E1,4.6797905E0,1.0237305E0,1.2529142E1,1.22529125E1,3.8802142E0,8.648929E0,3.5725558E0,8.680356E0],"tree_param":{"num_deleted":"0","num_feature":"34","num_nodes":"11","size_leaf_vector":"1"}},{"base_weights":[2.799634E-2,7.996037E-2,-9.556722E-2,-1.3566409E-1,1.0709917E-1,-1.8622324E-2,9.461436E-2],"categories":[],"categories_nodes":[],"categories_segments":[],"categories_sizes":[],"default_left":[0,0,0,0,0,0,0],"id":31,"left_children":[1,-1,3,-1,5,-1,-1],"loss_changes":[2.9589312E0,0E0,7.033944E0,0E0,6.119327E0,0E0,0E0],"parents":[2147483647,0,0,2,2,4,4],"right_children":[2,-1,4,-1,6,-1,-1],"split_conditions":[3.9296868E-1,7.996037E-2,4.540407E-1,-1.3566409E-1,7.0225567E-1,-1.8622324E-2,9.461436E-2],"split_indices":[20,0,20,0,21,0,0],"split_type":[0,0,0,0,0,0,0],"sum_hessian":[2.9233252E1,3.2799602E0,2.5953293E1,2.8050644E0,2.3148228E1,1.7728542E1,5.4196863E0],"tree_param":{"num_deleted":"0","num_feature":"34","num_nodes":"7","size_leaf_vector":"1"}},{"base_weights":[2.7422186E-2,-4.035458E-1,2.3451887E-1,4.0787968E-1,-8.734702E-1,8.84413E-2,-1.5008986E-1,-2.6079169E-2,7.1707346E-2,-9.81455E-2,-1.611562E-2,-4.1397855E-2,8.422114E-2],"categories":[],"categories_nodes":[],"categories_segments":[],"categories_sizes":[],"default_left":[0,0,0,0,0,0,0,0,0,0,0,0,0],"id":32,"left_children":[1,3,5,7,9,-1,11,-1,-1,-1,-1,-1,-1],"loss_changes":[2.742407E0,4.167947E0,5.2992816E0,1.0858979E0,3.532343E-1,0E0,3.9727917E0,0E0,0E0,0E0,0E0,0E0,0E0],"parents":[2147483647,0,0,1,1,2,2,3,3,4,4,6,6],"right_children":[2,4,6,8,10,-1,12,-1,-1,-1,-1,-1,-1],"split_conditions":[2.6166165E-1,1.3198707E-1,5.043961E-1,7.663829E-1,2.0675634E-1,8.84413E-2,9.944121E-1,-2.6079169E-2,7.1707346E-2,-9.81455E-2,-1.611562E-2,-4.1397855E-2,8.422114E-2],"split_indices":[19,11,11,0,17,0,31,0,0,0,0,0,0],"split_type":[0,0,0,0,0,0,0,0,0,0,0,0,0],"sum_hessian":[2.866619E1,8.996304E0,1.9669886E1,3.347741E0,5.6485634E0,6.8297596E0,1.2840125E1,1.1080288E0,2.239712E0,4.5768805E0,1.0716828E0,1.0603169E1,2.236956E0],"tree_param":{"num_deleted":"0","num_feature":"34","num_nodes":"13","size_leaf_vector":"1"}},{"base_weights":[2.85522E-2,7.8260906E-2,-9.286856E-2,-1.3586546E-1,1.0793517E-1,6.7619525E-2,-2.6603052E-2],"categories":[],"categories_nodes":[],"categories_segments":[],"categories_sizes":[],"default_left":[0,0,0,0,0,0,0],"id":33,"left_children":[1,-1,3,-1,5,-1,-1],"loss_changes":[2.6942415E0,0E0,6.642223E0,0E0,5.0639873E0,0E0,0E0],"parents":[2147483647,0,0,2,2,4,4],"right_children":[2,-1,4,-1,6,-1,-1],"split_conditions":[3.9703566E-1,7.8260906E-2,4.379832E-1,-1.3586546E-1,7.483392E-1,6.7619525E-2,-2.6603052E-2],"split_indices":[16,0,28,0,32,0,0],"split_type":[0,0,0,0,0,0,0],"sum_hessian":[2.763275E1,3.077179E0,2.455557E1,2.5726342E0,2.1982937E1,8.40418E0,1.3578757E1],"tree_param":{"num_deleted":"0","num_feature":"34","num_nodes":"7","size_leaf_vector":"1"}},{"base_weights":[2.6343986E-2,-3.9880157E-1,2.2902636E-1,6.51647E-2,-7.119839E-1,8.735568E-2,-1.4110494E-1,-8.9236535E-2,2.4901794E-2,-3.7702482E-2,8.0565415E-2],"categories":[],"categories_nodes":[],"categories_segments":[],"categories_sizes":[],"default_left":[0,0,0,0,0,0,0,0,0,0,0],"id":34,"left_children":[1,3,5,-1,7,-1,9,-1,-1,-1,-1],"loss_changes":[2.5095952E0,3.5645237E0,4.808423E0,0E0,1.5635796E0,0E0,3.2825E0,0E0,0E0,0E0,0E0],"parents":[2147483647,0,0,1,1,2,2,4,4,6,6],"right_children":[2,4,6,-1,8,-1,10,-1,-1,-1,-1],"split_conditions":[2.6166165E-1,1.0868322E-1,8.855536E-1,6.51647E-2,2.0775835E-1,8.735568E-2,9.944121E-1,-8.9236535E-2,2.4901794E-2,-3.7702482E-2,8.0565415E-2],"split_indices":[19,13,29,0,21,0,31,0,0,0,0],"split_type":[0,0,0,0,0,0,0,0,0,0,0],"sum_hessian":[2.7063978E1,8.424716E0,1.8639263E1,1.6866795E0,6.738037E0,6.303134E0,1.2336128E1,5.733309E0,1.0047282E0,1.03570595E1,1.9790697E0],"tree_param":{"num_deleted":"0","num_feature":"34","num_nodes":"11","size_leaf_vector":"1"}},{"base_weights":[3.0047812E-2,7.642004E-2,-8.699277E-2,-1.2625591E-1,1.0771216E-1,-1.5513991E-2,8.8640675E-2],"categories":[],"categories_nodes":[],"categories_segments":[],"categories_sizes":[],"default_left":[0,0,0,0,0,0,0],"id":35,"left_children":[1,-1,3,-1,5,-1,-1],"loss_changes":[2.3955748E0,0E0,5.6926346E0,0E0,4.5890307E0,0E0,0E0],"parents":[2147483647,0,0,2,2,4,4],"right_children":[2,-1,4,-1,6,-1,-1],"split_conditions":[3.9703566E-1,7.642004E-2,4.379832E-1,-1.2625591E-1,7.0225567E-1,-1.5513991E-2,8.8640675E-2],"split_indices":[16,0,28,0,21,0,0],"split_type":[0,0,0,0,0,0,0],"sum_hessian":[2.6105936E1,2.8293157E0,2.327662E1,2.5281258E0,2.0748495E1,1.6110939E1,4.6375556E0],"tree_param":{"num_deleted":"0","num_feature":"34","num_nodes":"7","size_leaf_vector":"1"}},{"base_weights":[2.9295439E-2,-8.578511E-2,7.482001E-2,1.6679107E-1,-7.372436E-1,-4.1781884E-2,4.3567166E-2,-2.0602796E-2,-1.0325613E-1],"categories":[],"categories_nodes":[],"categories_segments":[],"categories_sizes":[],"default_left":[0,0,0,0,0,0,0,0,0],"id":36,"left_children":[1,3,-1,5,7,-1,-1,-1,-1],"loss_changes":[2.2629948E0,4.040282E0,0E0,3.0069463E0,8.596704E-1,0E0,0E0,0E0,0E0],"parents":[2147483647,0,0,1,1,3,3,4,4],"right_children":[2,4,-1,6,8,-1,-1,-1,-1],"split_conditions":[8.5267544E-1,8.032113E-1,7.482001E-2,1.903362E-1,4.4489497E-1,-4.1781884E-2,4.3567166E-2,-2.0602796E-2,-1.0325613E-1],"split_indices":[20,12,0,17,9,0,0,0,0],"split_type":[0,0,0,0,0,0,0,0,0],"sum_hessian":[2.5577524E1,2.2807262E1,2.7702599E0,1.697131E1,5.8359537E0,5.1720757E0,1.1799234E1,2.6917322E0,3.1442213E0],"tree_param":{"num_deleted":"0","num_feature":"34","num_nodes":"9","size_leaf_vector":"1"}},{"base_weights":[2.5530182E-2,7.4049786E-2,-8.351911E-2,-1.14911735E-1,1.0961344E-1,-1.4586702E-2,8.8861644E-2],"categories":[],"categories_nodes":[],"categories_segments":[],"categories_sizes":[],"default_left":[0,0,0,0,0,0,0],"id":37,"left_children":[1,-1,3,-1,5,-1,-1],"loss_changes":[2.0762155E0,0E0,4.9243865E0,0E0,4.239635E0,0E0,0E0],"parents":[2147483647,0,0,2,2,4,4],"right_children":[2,-1,4,-1,6,-1,-1],"split_conditions":[3.9296868E-1,7.4049786E-2,4.540407E-1,-1.14911735E-1,7.0225567E-1,-1.4586702E-2,8.8861644E-2],"split_indices":[20,0,20,0,21,0,0],"split_type":[0,0,0,0,0,0,0],"sum_hessian":[2.4836277E1,2.5204942E0,2.2315783E1,2.664525E0,1.9651258E1,1.54101305E1,4.241128E0],"tree_param":{"num_deleted":"0","num_feature":"34","num_nodes":"7","size_leaf_vector":"1"}},{"base_weights":[2.5530241E-2,-8.3534025E-2,7.2727464E-2,1.5574943E-1,-6.9440645E-1,-3.7305158E-2,4.1043784E-2,-1.8584946E-2,-9.88875E-2],"categories":[],"categories_nodes":[],"categories_segments":[],"categories_sizes":[],"default_left":[0,0,0,0,0,0,0,0,0],"id":38,"left_children":[1,3,-1,5,7,-1,-1,-1,-1],"loss_changes":[2.0049405E0,3.4529316E0,0E0,2.477528E0,8.0814123E-1,0E0,0E0,0E0,0E0],"parents":[2147483647,0,0,1,1,3,3,4,4],"right_children":[2,4,-1,6,8,-1,-1,-1,-1],"split_conditions":[8.5267544E-1,8.032113E-1,7.2727464E-2,1.903362E-1,4.4489497E-1,-3.7305158E-2,4.1043784E-2,-1.8584946E-2,-9.88875E-2],"split_indices":[20,12,0,17,9,0,0,0,0],"split_type":[0,0,0,0,0,0,0,0,0],"sum_hessian":[2.4402529E1,2.1882534E1,2.519995E0,1.6258854E1,5.6236806E0,5.134184E0,1.112467E1,2.6603327E0,2.963348E0],"tree_param":{"num_deleted":"0","num_feature":"34","num_nodes":"9","size_leaf_vector":"1"}},{"base_weights":[2.2124449E-2,-8.248077E-2,7.126379E-2,1.0568831E-1,-8.0840963E-1,-1.0804615E-2,7.9815865E-2,-1.9004801E-2,-9.3348406E-2],"categories":[],"categories_nodes":[],"categories_segments":[],"categories_sizes":[],"default_left":[0,0,0,0,0,0,0,0,0],"id":39,"left_children":[1,3,-1,5,7,-1,-1,-1,-1],"loss_changes":[1.8456008E0,3.1423957E0,0E0,2.8475432E0,1.8783331E-1,0E0,0E0,0E0,0E0],"parents":[2147483647,0,0,1,1,3,3,4,4],"right_children":[2,4,-1,6,8,-1,-1,-1,-1],"split_conditions":[8.5689247E-1,8.4338003E-1,7.126379E-2,8.070552E-1,4.4648355E-1,-1.0804615E-2,7.9815865E-2,-1.9004801E-2,-9.3348406E-2],"split_indices":[8,8,0,18,9,0,0,0,0],"split_type":[0,0,0,0,0,0,0,0,0],"sum_hessian":[2.37375E1,2.1379318E1,2.358181E0,1.7656866E1,3.7224524E0,1.413729E1,3.5195758E0,1.0501319E0,2.6723206E0],"tree_param":{"num_deleted":"0","num_feature":"34","num_nodes":"9","size_leaf_vector":"1"}},{"base_weights":[2.1903213E-2,7.1774185E-2,-8.435803E-2,-1.2901598E-1,9.6992336E-2,-1.1279444E-2,8.598464E-2],"categories":[],"categories_nodes":[],"categories_segments":[],"categories_sizes":[],"default_left":[0,0,0,0,0,0,0],"id":40,"left_children":[1,-1,3,-1,5,-1,-1],"loss_changes":[1.8511485E0,0E0,4.9147987E0,0E0,3.2928991E0,0E0,0E0],"parents":[2147483647,0,0,2,2,4,4],"right_children":[2,-1,4,-1,6,-1,-1],"split_conditions":[3.9703566E-1,7.1774185E-2,3.8932863E-1,-1.2901598E-1,9.4713116E-1,-1.1279444E-2,8.598464E-2],"split_indices":[16,0,28,0,31,0,0],"split_type":[0,0,0,0,0,0,0],"sum_hessian":[2.3216728E1,2.3133752E0,2.0903355E1,1.933473E0,1.8969881E1,1.5546653E1,3.4232275E0],"tree_param":{"num_deleted":"0","num_feature":"34","num_nodes":"7","size_leaf_vector":"1"}},{"base_weights":[2.1300273E-2,-4.9166182E-1,1.608619E-1,-7.924123E-2,2.921753E-2,4.9689493E-1,-2.0583673E-1,-2.277018E-3,7.408087E-2,-5.493738E-2,5.3765398E-2],"categories":[],"categories_nodes":[],"categories_segments":[],"categories_sizes":[],"default_left":[0,0,0,0,0,0,0,0,0,0,0],"id":41,"left_children":[1,3,5,-1,-1,7,9,-1,-1,-1,-1],"loss_changes":[1.7826931E0,1.4894667E0,2.5002656E0,0E0,0E0,1.3411634E0,2.8527997E0,0E0,0E0,0E0,0E0],"parents":[2147483647,0,0,1,1,2,2,5,5,6,6],"right_children":[2,4,6,-1,-1,8,10,-1,-1,-1,-1],"split_conditions":[4.5839152E-1,7.85595E-1,5.1952213E-1,-7.924123E-2,2.921753E-2,5.35217E-1,7.69418E-1,-2.277018E-3,7.408087E-2,-5.493738E-2,5.3765398E-2],"split_indices":[33,26,13,0,0,33,17,0,0,0,0],"split_type":[0,0,0,0,0,0,0,0,0,0,0],"sum_hessian":[2.2796728E1,4.3361616E0,1.8460566E1,3.1258602E0,1.2103013E0,9.4478E0,9.012766E0,3.3075716E0,6.140228E0,6.343007E0,2.669759E0],"tree_param":{"num_deleted":"0","num_feature":"34","num_nodes":"11","size_leaf_vector":"1"}},{"base_weights":[2.118199E-2,6.994059E-2,-8.1478275E-2,-1.14361644E-1,1.1440703E-1,8.289055E-2,-1.2640181E-2],"categories":[],"categories_nodes":[],"categories_segments":[],"categories_sizes":[],"default_left":[0,0,0,0,0,0,0],"id":42,"left_children":[1,-1,3,-1,5,-1,-1],"loss_changes":[1.6618149E0,0E0,4.482258E0,0E0,3.2993698E0,0E0,0E0],"parents":[2147483647,0,0,2,2,4,4],"right_children":[2,-1,4,-1,6,-1,-1],"split_conditions":[3.9703566E-1,6.994059E-2,4.379832E-1,-1.14361644E-1,7.315363E-1,8.289055E-2,-1.2640181E-2],"split_indices":[16,0,28,0,20,0,0],"split_type":[0,0,0,0,0,0,0],"sum_hessian":[2.2049057E1,2.1345243E0,1.9914532E1,2.3475182E0,1.7567013E1,3.8125906E0,1.3754423E1],"tree_param":{"num_deleted":"0","num_feature":"34","num_nodes":"7","size_leaf_vector":"1"}},{"base_weights":[2.1215875E-2,-8.130359E-2,6.888705E-2,2.4225992E-1,-4.645418E-1,5.9556838E-2,-3.3042092E-2,3.8030457E-2,-6.520467E-2],"categories":[],"categories_nodes":[],"categories_segments":[],"categories_sizes":[],"default_left":[0,0,0,0,0,0,0,0,0],"id":43,"left_children":[1,3,-1,5,7,-1,-1,-1,-1],"loss_changes":[1.6062424E0,2.6580682E0,0E0,2.5818694E0,1.7909544E0,0E0,0E0,0E0,0E0],"parents":[2147483647,0,0,1,1,3,3,4,4],"right_children":[2,4,-1,6,8,-1,-1,-1,-1],"split_conditions":[8.5267544E-1,7.5146693E-1,6.888705E-2,7.598305E-1,7.483392E-1,5.9556838E-2,-3.3042092E-2,3.8030457E-2,-6.520467E-2],"split_indices":[20,20,0,19,32,0,0,0,0],"split_type":[0,0,0,0,0,0,0,0,0],"sum_hessian":[2.164849E1,1.952814E1,2.1203527E0,1.0787901E1,8.740237E0,6.647093E0,4.140808E0,1.400722E0,7.339515E0],"tree_param":{"num_deleted":"0","num_feature":"34","num_nodes":"9","size_leaf_vector":"1"}},{"base_weights":[2.3004878E-2,-3.363525E-1,2.0977756E-1,6.299173E-2,-6.697855E-1,8.333468E-2,-1.4936127E-1,-8.4965E-2,1.1911928E-2,6.553995E-2,-3.8607635E-2],"categories":[],"categories_nodes":[],"categories_segments":[],"categories_sizes":[],"default_left":[0,0,0,0,0,0,0,0,0,0,0],"id":44,"left_children":[1,3,5,-1,7,-1,9,-1,-1,-1,-1],"loss_changes":[1.5556415E0,2.9836733E0,3.5229254E0,0E0,1.0087774E0,0E0,2.248951E0,0E0,0E0,0E0,0E0],"parents":[2147483647,0,0,1,1,2,2,4,4,6,6],"right_children":[2,4,6,-1,8,-1,10,-1,-1,-1,-1],"split_conditions":[2.6166165E-1,1.0868322E-1,5.043961E-1,6.299173E-2,2.0846058E-1,8.333468E-2,3.9296868E-1,-8.4965E-2,1.1911928E-2,6.553995E-2,-3.8607635E-2],"split_indices":[19,13,11,0,17,0,20,0,0,0,0],"split_type":[0,0,0,0,0,0,0,0,0,0,0],"sum_hessian":[2.1126392E1,6.951189E0,1.4175204E1,1.55518E0,5.396009E0,4.697894E0,9.47731E0,4.331467E0,1.0645419E0,1.7520691E0,7.725241E0],"tree_param":{"num_deleted":"0","num_feature":"34","num_nodes":"11","size_leaf_vector":"1"}},{"base_weights":[2.6713805E-2,-7.2205156E-2,6.693588E-2,2.3516811E-1,-4.3509153E-1,5.9152346E-2,-2.9845297E-2,4.8462063E-2,-6.12619E-2],"categories":[],"categories_nodes":[],"categories_segments":[],"categories_sizes":[],"default_left":[0,0,0,0,0,0,0,0,0],"id":45,"left_children":[1,3,-1,5,7,-1,-1,-1,-1],"loss_changes":[1.4059691E0,2.267394E0,0E0,2.2983701E0,1.807546E0,0E0,0E0,0E0,0E0],"parents":[2147483647,0,0,1,1,3,3,4,4],"right_children":[2,4,-1,6,8,-1,-1,-1,-1],"split_conditions":[8.5689247E-1,7.483392E-1,6.693588E-2,7.598305E-1,3.2205138E-1,5.9152346E-2,-2.9845297E-2,4.8462063E-2,-6.12619E-2],"split_indices":[8,32,0,19,23,0,0,0,0],"split_type":[0,0,0,0,0,0,0,0,0],"sum_hessian":[2.0356657E1,1.8410475E1,1.9461837E0,1.01581955E1,8.252279E0,6.025693E0,4.132502E0,1.0552963E0,7.196983E0],"tree_param":{"num_deleted":"0","num_feature":"34","num_nodes":"9","size_leaf_vector":"1"}},{"base_weights":[2.8986843E-2,-3.2577473E-1,2.0836131E-1,5.9998065E-2,-6.402381E-1,8.191878E-2,-1.3080423E-1,-8.159032E-2,1.1419151E-2,-3.412705E-2,6.866768E-2],"categories":[],"categories_nodes":[],"categories_segments":[],"categories_sizes":[],"default_left":[0,0,0,0,0,0,0,0,0,0,0],"id":46,"left_children":[1,3,5,-1,7,-1,9,-1,-1,-1,-1],"loss_changes":[1.3954523E0,2.5372515E0,3.1041284E0,0E0,8.889334E-1,0E0,1.9830422E0,0E0,0E0,0E0,0E0],"parents":[2147483647,0,0,1,1,2,2,4,4,6,6],"right_children":[2,4,6,-1,8,-1,10,-1,-1,-1,-1],"split_conditions":[2.6166165E-1,1.0868322E-1,8.855536E-1,5.9998065E-2,2.0846058E-1,8.191878E-2,9.944121E-1,-8.159032E-2,1.1419151E-2,-3.412705E-2,6.866768E-2],"split_indices":[19,13,29,0,17,0,31,0,0,0,0],"split_type":[0,0,0,0,0,0,0,0,0,0,0],"sum_hessian":[1.9862259E1,6.396089E0,1.3466169E1,1.3915436E0,5.004545E0,4.302392E0,9.163777E0,3.9932535E0,1.0112921E0,7.75081E0,1.4129667E0],"tree_param":{"num_deleted":"0","num_feature":"34","num_nodes":"11","size_leaf_vector":"1"}},{"base_weights":[3.2700446E-2,6.679057E-2,-6.846402E-2,-1.1168952E-1,1.06449254E-1,-9.966196E-3,8.1210844E-2],"categories":[],"categories_nodes":[],"categories_segments":[],"categories_sizes":[],"default_left":[0,0,0,0,0,0,0],"id":47,"left_children":[1,-1,3,-1,5,-1,-1],"loss_changes":[1.344754E0,0E0,3.4830673E0,0E0,2.5003953E0,0E0,0E0],"parents":[2147483647,0,0,2,2,4,4],"right_children":[2,-1,4,-1,6,-1,-1],"split_conditions":[3.9703566E-1,6.679057E-2,3.8932863E-1,-1.1168952E-1,6.744915E-1,-9.966196E-3,8.1210844E-2],"split_indices":[16,0,28,0,17,0,0],"split_type":[0,0,0,0,0,0,0],"sum_hessian":[1.9215101E1,1.8701801E0,1.7344921E1,1.709964E0,1.5634957E1,1.2765219E1,2.8697386E0],"tree_param":{"num_deleted":"0","num_feature":"34","num_nodes":"7","size_leaf_vector":"1"}},{"base_weights":[3.17142E-2,6.5261826E-2,-6.426179E-2,-9.5742576E-2,1.2567276E-1,-9.9760145E-3,8.104058E-2],"categories":[],"categories_nodes":[],"categories_segments":[],"categories_sizes":[],"default_left":[0,0,0,0,0,0,0],"id":48,"left_children":[1,-1,3,-1,5,-1,-1],"loss_changes":[1.2262168E0,0E0,3.1947381E0,0E0,2.5241995E0,0E0,0E0],"parents":[2147483647,0,0,2,2,4,4],"right_children":[2,-1,4,-1,6,-1,-1],"split_conditions":[3.9296868E-1,6.5261826E-2,4.540407E-1,-9.5742576E-2,7.0225567E-1,-9.9760145E-3,8.104058E-2],"split_indices":[20,0,20,0,21,0,0],"split_type":[0,0,0,0,0,0,0],"sum_hessian":[1.8873152E1,1.7502611E0,1.712289E1,2.294101E0,1.4828791E1,1.1798656E1,3.0301332E0],"tree_param":{"num_deleted":"0","num_feature":"34","num_nodes":"7","size_leaf_vector":"1"}},{"base_weights":[3.168434E-2,-4.2483017E-1,1.5651059E-1,-7.238334E-2,2.963061E-2,5.0724494E-1,-1.3808256E-1,-6.038891E-4,8.02622E-2,-6.412866E-2,2.1164304E-2],"categories":[],"categories_nodes":[],"categories_segments":[],"categories_sizes":[],"default_left":[0,0,0,0,0,0,0,0,0,0,0],"id":49,"left_children":[1,3,5,-1,-1,7,9,-1,-1,-1,-1],"loss_changes":[1.1821907E0,1.1790006E0,1.7341384E0,0E0,0E0,1.1519783E0,1.8145002E0,0E0,0E0,0E0,0E0],"parents":[2147483647,0,0,1,1,2,2,5,5,6,6],"right_children":[2,4,6,-1,-1,8,10,-1,-1,-1,-1],"split_conditions":[4.5839152E-1,7.85595E-1,5.043961E-1,-7.238334E-2,2.963061E-2,5.35217E-1,7.636379E-1,-6.038891E-4,8.02622E-2,-6.412866E-2,2.1164304E-2],"split_indices":[33,26,11,0,0,33,23,0,0,0,0],"split_type":[0,0,0,0,0,0,0,0,0,0,0],"sum_hessian":[1.8578842E1,3.4732182E0,1.5105623E1,2.452573E0,1.0206451E0,6.5662184E0,8.539405E0,2.7562208E0,3.8099976E0,3.1595662E0,5.379839E0],"tree_param":{"num_deleted":"0","num_feature":"34","num_nodes":"11","size_leaf_vector":"1"}}]},"name":"gbtree"},"learner_model_param":{"base_score":"9.1331756E-1","boost_from_average":"1","num_class":"0","num_feature":"34","num_target":"1"},"objective":{"name":"binary:logistic","reg_loss_param":{"scale_pos_weight":"1"}}},"version":[3,0,5]}